digraph Tree {
node [shape=box] ;
0 [label="Alcohol <= 10.85\nentropy = 1.836\nsamples = 3918\nvalue = [11, 112, 1162, 1789, 697, 142, 5]"] ;
1 [label="Volatile Acidity <= 0.237\nentropy = 1.619\nsamples = 2461\nvalue = [6, 86, 1022, 1107, 209, 30, 1]"] ;
0 -> 1 [labeldistance=2.5, labelangle=45, headlabel="True"] ;
2 [label="Alcohol <= 8.95\nentropy = 1.617\nsamples = 900\nvalue = [2, 12, 199, 513, 150, 24, 0]"] ;
1 -> 2 ;
3 [label="Alcohol <= 8.75\nentropy = 1.905\nsamples = 92\nvalue = [0, 0, 23, 37, 15, 17, 0]"] ;
2 -> 3 ;
4 [label="Volatile Acidity <= 0.17\nentropy = 1.498\nsamples = 26\nvalue = [0, 0, 7, 6, 13, 0, 0]"] ;
3 -> 4 ;
5 [label="entropy = 0.0\nsamples = 10\nvalue = [0, 0, 0, 0, 10, 0, 0]"] ;
4 -> 5 ;
6 [label="entropy = 1.505\nsamples = 16\nvalue = [0, 0, 7, 6, 3, 0, 0]"] ;
4 -> 6 ;
7 [label="Residual Sugar <= 14.5\nentropy = 1.665\nsamples = 66\nvalue = [0, 0, 16, 31, 2, 17, 0]"] ;
3 -> 7 ;
8 [label="entropy = 1.742\nsamples = 38\nvalue = [0, 0, 9, 10, 2, 17, 0]"] ;
7 -> 8 ;
9 [label="entropy = 0.811\nsamples = 28\nvalue = [0, 0, 7, 21, 0, 0, 0]"] ;
7 -> 9 ;
10 [label="Fixed Acidity <= 7.55\nentropy = 1.531\nsamples = 808\nvalue = [2, 12, 176, 476, 135, 7, 0]"] ;
2 -> 10 ;
11 [label="CitricAcid <= 0.235\nentropy = 1.496\nsamples = 655\nvalue = [1, 5, 134, 388, 121, 6, 0]"] ;
10 -> 11 ;
12 [label="entropy = 1.033\nsamples = 62\nvalue = [0, 0, 21, 40, 1, 0, 0]"] ;
11 -> 12 ;
13 [label="entropy = 1.514\nsamples = 593\nvalue = [1, 5, 113, 348, 120, 6, 0]"] ;
11 -> 13 ;
14 [label="Free Sulfur Dioxide <= 15.5\nentropy = 1.585\nsamples = 153\nvalue = [1, 7, 42, 88, 14, 1, 0]"] ;
10 -> 14 ;
15 [label="entropy = 1.671\nsamples = 20\nvalue = [1, 2, 12, 4, 0, 1, 0]"] ;
14 -> 15 ;
16 [label="entropy = 1.423\nsamples = 133\nvalue = [0, 5, 30, 84, 14, 0, 0]"] ;
14 -> 16 ;
17 [label="Volatile Acidity <= 0.303\nentropy = 1.464\nsamples = 1561\nvalue = [4, 74, 823, 594, 59, 6, 1]"] ;
1 -> 17 ;
18 [label="Alcohol <= 9.85\nentropy = 1.518\nsamples = 830\nvalue = [2, 23, 376, 369, 53, 6, 1]"] ;
17 -> 18 ;
19 [label="Residual Sugar <= 13.05\nentropy = 1.372\nsamples = 497\nvalue = [1, 12, 271, 190, 22, 1, 0]"] ;
18 -> 19 ;
20 [label="entropy = 1.26\nsamples = 359\nvalue = [0, 11, 202, 140, 5, 1, 0]"] ;
19 -> 20 ;
21 [label="entropy = 1.506\nsamples = 138\nvalue = [1, 1, 69, 50, 17, 0, 0]"] ;
19 -> 21 ;
22 [label="Residual Sugar <= 2.95\nentropy = 1.629\nsamples = 333\nvalue = [1, 11, 105, 179, 31, 5, 1]"] ;
18 -> 22 ;
23 [label="entropy = 1.894\nsamples = 123\nvalue = [1, 9, 46, 50, 13, 4, 0]"] ;
22 -> 23 ;
24 [label="entropy = 1.388\nsamples = 210\nvalue = [0, 2, 59, 129, 18, 1, 1]"] ;
22 -> 24 ;
25 [label="Alcohol <= 9.75\nentropy = 1.305\nsamples = 731\nvalue = [2, 51, 447, 225, 6, 0, 0]"] ;
17 -> 25 ;
26 [label="Total Sulfur Dioxide <= 115.5\nentropy = 1.197\nsamples = 473\nvalue = [2, 33, 325, 111, 2, 0, 0]"] ;
25 -> 26 ;
27 [label="entropy = 1.277\nsamples = 64\nvalue = [0, 15, 41, 8, 0, 0, 0]"] ;
26 -> 27 ;
28 [label="entropy = 1.14\nsamples = 409\nvalue = [2, 18, 284, 103, 2, 0, 0]"] ;
26 -> 28 ;
29 [label="Volatile Acidity <= 0.59\nentropy = 1.393\nsamples = 258\nvalue = [0, 18, 122, 114, 4, 0, 0]"] ;
25 -> 29 ;
30 [label="entropy = 1.337\nsamples = 243\nvalue = [0, 12, 117, 110, 4, 0, 0]"] ;
29 -> 30 ;
31 [label="entropy = 1.566\nsamples = 15\nvalue = [0, 6, 5, 4, 0, 0, 0]"] ;
29 -> 31 ;
32 [label="Alcohol <= 12.275\nentropy = 1.806\nsamples = 1457\nvalue = [5, 26, 140, 682, 488, 112, 4]"] ;
0 -> 32 [labeldistance=2.5, labelangle=-45, headlabel="False"] ;
33 [label="pH <= 3.245\nentropy = 1.763\nsamples = 992\nvalue = [3, 23, 125, 496, 296, 49, 0]"] ;
32 -> 33 ;
34 [label="Free Sulfur Dioxide <= 11.5\nentropy = 1.698\nsamples = 650\nvalue = [2, 17, 96, 347, 171, 17, 0]"] ;
33 -> 34 ;
35 [label="Alcohol <= 11.75\nentropy = 1.688\nsamples = 55\nvalue = [0, 11, 18, 24, 2, 0, 0]"] ;
34 -> 35 ;
36 [label="entropy = 1.557\nsamples = 38\nvalue = [0, 10, 16, 12, 0, 0, 0]"] ;
35 -> 36 ;
37 [label="entropy = 1.322\nsamples = 17\nvalue = [0, 1, 2, 12, 2, 0, 0]"] ;
35 -> 37 ;
38 [label="Free Sulfur Dioxide <= 74.5\nentropy = 1.62\nsamples = 595\nvalue = [2, 6, 78, 323, 169, 17, 0]"] ;
34 -> 38 ;
39 [label="entropy = 1.593\nsamples = 589\nvalue = [2, 5, 78, 322, 168, 14, 0]"] ;
38 -> 39 ;
40 [label="entropy = 1.792\nsamples = 6\nvalue = [0, 1, 0, 1, 1, 3, 0]"] ;
38 -> 40 ;
41 [label="Free Sulfur Dioxide <= 11.5\nentropy = 1.802\nsamples = 342\nvalue = [1, 6, 29, 149, 125, 32, 0]"] ;
33 -> 41 ;
42 [label="Density <= 0.992\nentropy = 1.889\nsamples = 15\nvalue = [0, 6, 4, 2, 3, 0, 0]"] ;
41 -> 42 ;
43 [label="entropy = 1.352\nsamples = 9\nvalue = [0, 5, 3, 1, 0, 0, 0]"] ;
42 -> 43 ;
44 [label="entropy = 1.792\nsamples = 6\nvalue = [0, 1, 1, 1, 3, 0, 0]"] ;
42 -> 44 ;
45 [label="Chlorides <= 0.046\nentropy = 1.686\nsamples = 327\nvalue = [1, 0, 25, 147, 122, 32, 0]"] ;
41 -> 45 ;
46 [label="entropy = 1.706\nsamples = 270\nvalue = [0, 0, 21, 115, 102, 32, 0]"] ;
45 -> 46 ;
47 [label="entropy = 1.369\nsamples = 57\nvalue = [1, 0, 4, 32, 20, 0, 0]"] ;
45 -> 47 ;
48 [label="Free Sulfur Dioxide <= 21.5\nentropy = 1.746\nsamples = 465\nvalue = [2, 3, 15, 186, 192, 63, 4]"] ;
32 -> 48 ;
49 [label="Free Sulfur Dioxide <= 6.5\nentropy = 1.716\nsamples = 122\nvalue = [2, 3, 7, 64, 39, 7, 0]"] ;
48 -> 49 ;
50 [label="Sulphates <= 0.45\nentropy = 2.156\nsamples = 8\nvalue = [1, 0, 3, 2, 1, 1, 0]"] ;
49 -> 50 ;
51 [label="entropy = 1.371\nsamples = 5\nvalue = [1, 0, 3, 1, 0, 0, 0]"] ;
50 -> 51 ;
52 [label="entropy = 1.585\nsamples = 3\nvalue = [0, 0, 0, 1, 1, 1, 0]"] ;
50 -> 52 ;
53 [label="Sulphates <= 0.325\nentropy = 1.597\nsamples = 114\nvalue = [1, 3, 4, 62, 38, 6, 0]"] ;
49 -> 53 ;
54 [label="entropy = 1.361\nsamples = 10\nvalue = [1, 0, 0, 0, 4, 5, 0]"] ;
53 -> 54 ;
55 [label="entropy = 1.365\nsamples = 104\nvalue = [0, 3, 4, 62, 34, 1, 0]"] ;
53 -> 55 ;
56 [label="Volatile Acidity <= 0.295\nentropy = 1.678\nsamples = 343\nvalue = [0, 0, 8, 122, 153, 56, 4]"] ;
48 -> 56 ;
57 [label="Chlorides <= 0.045\nentropy = 1.634\nsamples = 154\nvalue = [0, 0, 3, 73, 54, 22, 2]"] ;
56 -> 57 ;
58 [label="entropy = 1.569\nsamples = 142\nvalue = [0, 0, 1, 66, 54, 19, 2]"] ;
57 -> 58 ;
59 [label="entropy = 1.384\nsamples = 12\nvalue = [0, 0, 2, 7, 0, 3, 0]"] ;
57 -> 59 ;
60 [label="Sulphates <= 0.475\nentropy = 1.647\nsamples = 189\nvalue = [0, 0, 5, 49, 99, 34, 2]"] ;
56 -> 60 ;
61 [label="entropy = 1.658\nsamples = 102\nvalue = [0, 0, 4, 38, 47, 12, 1]"] ;
60 -> 61 ;
62 [label="entropy = 1.471\nsamples = 87\nvalue = [0, 0, 1, 11, 52, 22, 1]"] ;
60 -> 62 ;
}